digraph Tree {
node [shape=box, style="filled, rounded", color="black", fontname=helvetica] ;
edge [fontname=helvetica] ;
0 [label="petal length (cm) <= 2.35\ngini = 0.67\nsamples = 100\nvalue = [50, 52, 48]\nclass = versicolor", fillcolor="#fbfefc"] ;
1 [label="gini = 0.0\nsamples = 29\nvalue = [50, 0, 0]\nclass = setosa", fillcolor="#e58139"] ;
0 -> 1 [labeldistance=2.5, labelangle=45, headlabel="True"] ;
2 [label="petal width (cm) <= 1.65\ngini = 0.5\nsamples = 71\nvalue = [0, 52, 48]\nclass = versicolor", fillcolor="#f0fdf5"] ;
0 -> 2 [labeldistance=2.5, labelangle=-45, headlabel="False"] ;
3 [label="petal width (cm) <= 1.35\ngini = 0.1\nsamples = 42\nvalue = [0, 52, 3]\nclass = versicolor", fillcolor="#44e688"] ;
2 -> 3 ;
4 [label="gini = 0.0\nsamples = 25\nvalue = [0, 35, 0]\nclass = versicolor", fillcolor="#39e581"] ;
3 -> 4 ;
5 [label="sepal length (cm) <= 7.05\ngini = 0.26\nsamples = 17\nvalue = [0, 17, 3]\nclass = versicolor", fillcolor="#5cea97"] ;
3 -> 5 ;
6 [label="petal length (cm) <= 5.0\ngini = 0.19\nsamples = 16\nvalue = [0, 17, 2]\nclass = versicolor", fillcolor="#50e890"] ;
5 -> 6 ;
7 [label="gini = 0.0\nsamples = 13\nvalue = [0, 16, 0]\nclass = versicolor", fillcolor="#39e581"] ;
6 -> 7 ;
8 [label="petal width (cm) <= 1.55\ngini = 0.44\nsamples = 3\nvalue = [0, 1, 2]\nclass = virginica", fillcolor="#c09cf2"] ;
6 -> 8 ;
9 [label="gini = 0.0\nsamples = 2\nvalue = [0, 0, 2]\nclass = virginica", fillcolor="#8139e5"] ;
8 -> 9 ;
10 [label="gini = 0.0\nsamples = 1\nvalue = [0, 1, 0]\nclass = versicolor", fillcolor="#39e581"] ;
8 -> 10 ;
11 [label="gini = 0.0\nsamples = 1\nvalue = [0, 0, 1]\nclass = virginica", fillcolor="#8139e5"] ;
5 -> 11 ;
12 [label="gini = 0.0\nsamples = 29\nvalue = [0, 0, 45]\nclass = virginica", fillcolor="#8139e5"] ;
2 -> 12 ;
}